{
  "levels": [
    {
      "inputs": [
        0.0,
        0.0,
        0.0,
        0.46180344,
        0.7165517
      ],
      "outputs": [
        0.0,
        0.0,
        0.0,
        1.0,
        1.0,
        0.0
      ],
      "biases": [
        0.11389301,
        0.15541981,
        0.20374943,
        0.063841626,
        -0.1783549,
        0.16156137
      ],
      "weights": [
        [
          0.21463528,
          0.028017595,
          0.06735587,
          0.00062879175,
          -0.03239602,
          0.3146093
        ],
        [
          0.122365445,
          -0.15847087,
          0.026511062,
          -0.19176507,
          0.3185571,
          0.07941166
        ],
        [
          0.18845443,
          0.25146407,
          0.0051211156,
          0.42253184,
          0.24153073,
          -0.116361946
        ],
        [
          0.41162154,
          -0.22419688,
          -0.031232074,
          -0.056172043,
          -0.08437093,
          0.29340598
        ],
        [
          -0.15079544,
          0.0031775609,
          0.05048691,
          0.23714605,
          0.022287738,
          -0.23312959
        ]
      ]
    },
    {
      "inputs": [
        0.0,
        0.0,
        0.0,
        1.0,
        1.0,
        0.0
      ],
      "outputs": [
        1.0,
        0.0,
        0.0,
        0.0
      ],
      "biases": [
        0.14176662,
        0.19031896,
        -0.23872152,
        -0.32310164
      ],
      "weights": [
        [
          0.21301366,
          -0.010797771,
          0.011162759,
          0.23640394
        ],
        [
          -0.23149556,
          -0.05152803,
          -0.11063055,
          0.38422874
        ],
        [
          -0.038851403,
          -0.3345428,
          -0.28784427,
          -0.25829142
        ],
        [
          0.0019063354,
          -0.33204857,
          -0.39720196,
          -0.02936991
        ],
        [
          0.479159,
          -0.18558663,
          -0.085082546,
          -0.40252858
        ],
        [
          0.36836368,
          0.3280409,
          -0.08451207,
          -0.39670488
        ]
      ]
    }
  ],
  "outputs": [
    1.0,
    0.0,
    0.0,
    0.0
  ]
}